{
	"nn_structure": [
		1,
		15,
		1
	],
	"activation": "tanh",
	"mode": "regression",
	"optimizer": "adam",
	"learning_rate": 0.001,
	"l2_regularization": 0.0006129065053983219,
	"n_iterations": 10000,
	"parameters": {
		"W1": [
			1.012918566152665,
			-1.1163678444255853,
			1.4288121308532606,
			0.5145141784426795,
			-1.6265532368475486,
			-1.312823698893245,
			-0.037600121429137816,
			1.5798295888479732,
			-2.2645193305044664,
			1.127254658812769,
			0.47103393167075225,
			8.375682077602281,
			3.9062677694167642,
			-1.7280405481827974,
			-7.889256127867338
		],
		"W2": [
			1.6832625618543533,
			0.6685965094140572,
			0.8767670546574231,
			-0.15568588681177578,
			-2.110140284976385,
			-0.8186196659428304,
			3.134856395109849,
			1.9274391047044896,
			-3.261176005604697,
			2.1873549214814445,
			-0.47216010630257593,
			-4.526200418419638,
			3.5444018124477363,
			-0.7021164322457398,
			5.282452326499494
		],
		"b1": [
			0.1425262408275818,
			-0.004022782326072698,
			-0.08976592371931588,
			0.025652327483468643,
			0.1958869092051071,
			0.07106718468659323,
			-1.935128193360612,
			-0.15974205339094444,
			0.7791085179611705,
			-0.021317498407900818,
			0.05569857194871292,
			-1.7933282343443029,
			-2.430939827400067,
			0.3084690369767735,
			4.849642436297376
		],
		"b2": [
			0.01411754436461503
		]
	}
}